digraph Tree {
node [shape=box] ;
0 [label="Name Relations <= 0.5\ngini = 0.892\nsamples = 400\nvalue = [26, 49, 34, 42, 35, 48, 62, 46, 34, 24]"] ;
1 [label="ID Relation <= 0.5\ngini = 0.877\nsamples = 314\nvalue = [3, 23, 20, 33, 30, 45, 61, 45, 30, 24]"] ;
0 -> 1 [labeldistance=2.5, labelangle=45, headlabel="True"] ;
2 [label="Paper Relations <= 18.5\ngini = 0.863\nsamples = 231\nvalue = [0, 4, 11, 28, 23, 34, 48, 35, 27, 21]"] ;
1 -> 2 ;
3 [label="Num Relations <= 1.5\ngini = 0.853\nsamples = 169\nvalue = [0, 3, 8, 15, 10, 25, 36, 33, 23, 16]"] ;
2 -> 3 ;
4 [label="Common_PubMed_IDs <= 197.5\ngini = 0.853\nsamples = 108\nvalue = [0, 0, 3, 14, 8, 18, 22, 13, 18, 12]"] ;
3 -> 4 ;
5 [label="Num Atoms <= 6.5\ngini = 0.849\nsamples = 100\nvalue = [0, 0, 2, 14, 8, 18, 19, 13, 18, 8]"] ;
4 -> 5 ;
6 [label="Paper Relations <= 1.5\ngini = 0.857\nsamples = 56\nvalue = [0, 0, 2, 8, 5, 11, 6, 10, 7, 7]"] ;
5 -> 6 ;
7 [label="Concept Relation <= 1.0\ngini = 0.813\nsamples = 29\nvalue = [0, 0, 1, 6, 1, 4, 1, 7, 2, 7]"] ;
6 -> 7 ;
8 [label="Context Type <= 0.5\ngini = 0.806\nsamples = 25\nvalue = [0, 0, 1, 5, 1, 2, 1, 7, 2, 6]"] ;
7 -> 8 ;
9 [label="Num Atoms <= 4.5\ngini = 0.836\nsamples = 16\nvalue = [0, 0, 1, 4, 1, 2, 1, 3, 1, 3]"] ;
8 -> 9 ;
10 [label="Num Atoms <= 2.5\ngini = 0.816\nsamples = 14\nvalue = [0, 0, 1, 4, 0, 2, 1, 2, 1, 3]"] ;
9 -> 10 ;
11 [label="Num Atoms <= 1.5\ngini = 0.826\nsamples = 11\nvalue = [0, 0, 1, 2, 0, 1, 1, 2, 1, 3]"] ;
10 -> 11 ;
12 [label="Common_PubMed_IDs <= 4.0\ngini = 0.75\nsamples = 8\nvalue = [0, 0, 0, 2, 0, 1, 1, 1, 0, 3]"] ;
11 -> 12 ;
13 [label="Common_PubMed_IDs <= 1.5\ngini = 0.776\nsamples = 7\nvalue = [0, 0, 0, 2, 0, 1, 1, 1, 0, 2]"] ;
12 -> 13 ;
14 [label="gini = 0.778\nsamples = 6\nvalue = [0, 0, 0, 1, 0, 1, 1, 1, 0, 2]"] ;
13 -> 14 ;
15 [label="gini = 0.0\nsamples = 1\nvalue = [0, 0, 0, 1, 0, 0, 0, 0, 0, 0]"] ;
13 -> 15 ;
16 [label="gini = 0.0\nsamples = 1\nvalue = [0, 0, 0, 0, 0, 0, 0, 0, 0, 1]"] ;
12 -> 16 ;
17 [label="gini = 0.667\nsamples = 3\nvalue = [0, 0, 1, 0, 0, 0, 0, 1, 1, 0]"] ;
11 -> 17 ;
18 [label="Num Atoms <= 3.5\ngini = 0.444\nsamples = 3\nvalue = [0, 0, 0, 2, 0, 1, 0, 0, 0, 0]"] ;
10 -> 18 ;
19 [label="gini = 0.0\nsamples = 2\nvalue = [0, 0, 0, 2, 0, 0, 0, 0, 0, 0]"] ;
18 -> 19 ;
20 [label="gini = 0.0\nsamples = 1\nvalue = [0, 0, 0, 0, 0, 1, 0, 0, 0, 0]"] ;
18 -> 20 ;
21 [label="Common_PubMed_IDs <= 0.5\ngini = 0.5\nsamples = 2\nvalue = [0, 0, 0, 0, 1, 0, 0, 1, 0, 0]"] ;
9 -> 21 ;
22 [label="gini = 0.0\nsamples = 1\nvalue = [0, 0, 0, 0, 0, 0, 0, 1, 0, 0]"] ;
21 -> 22 ;
23 [label="gini = 0.0\nsamples = 1\nvalue = [0, 0, 0, 0, 1, 0, 0, 0, 0, 0]"] ;
21 -> 23 ;
24 [label="Common_PubMed_IDs <= 3.5\ngini = 0.667\nsamples = 9\nvalue = [0, 0, 0, 1, 0, 0, 0, 4, 1, 3]"] ;
8 -> 24 ;
25 [label="Common_PubMed_IDs <= 1.0\ngini = 0.694\nsamples = 7\nvalue = [0, 0, 0, 1, 0, 0, 0, 2, 1, 3]"] ;
24 -> 25 ;
26 [label="Num Atoms <= 5.5\ngini = 0.611\nsamples = 6\nvalue = [0, 0, 0, 1, 0, 0, 0, 2, 0, 3]"] ;
25 -> 26 ;
27 [label="Num Atoms <= 1.5\ngini = 0.375\nsamples = 4\nvalue = [0, 0, 0, 0, 0, 0, 0, 1, 0, 3]"] ;
26 -> 27 ;
28 [label="gini = 0.0\nsamples = 1\nvalue = [0, 0, 0, 0, 0, 0, 0, 0, 0, 1]"] ;
27 -> 28 ;
29 [label="Num Atoms <= 3.5\ngini = 0.444\nsamples = 3\nvalue = [0, 0, 0, 0, 0, 0, 0, 1, 0, 2]"] ;
27 -> 29 ;
30 [label="gini = 0.5\nsamples = 2\nvalue = [0, 0, 0, 0, 0, 0, 0, 1, 0, 1]"] ;
29 -> 30 ;
31 [label="gini = 0.0\nsamples = 1\nvalue = [0, 0, 0, 0, 0, 0, 0, 0, 0, 1]"] ;
29 -> 31 ;
32 [label="gini = 0.5\nsamples = 2\nvalue = [0, 0, 0, 1, 0, 0, 0, 1, 0, 0]"] ;
26 -> 32 ;
33 [label="gini = 0.0\nsamples = 1\nvalue = [0, 0, 0, 0, 0, 0, 0, 0, 1, 0]"] ;
25 -> 33 ;
34 [label="gini = 0.0\nsamples = 2\nvalue = [0, 0, 0, 0, 0, 0, 0, 2, 0, 0]"] ;
24 -> 34 ;
35 [label="Num Atoms <= 3.5\ngini = 0.625\nsamples = 4\nvalue = [0, 0, 0, 1, 0, 2, 0, 0, 0, 1]"] ;
7 -> 35 ;
36 [label="Context Type <= 0.5\ngini = 0.5\nsamples = 2\nvalue = [0, 0, 0, 0, 0, 1, 0, 0, 0, 1]"] ;
35 -> 36 ;
37 [label="gini = 0.0\nsamples = 1\nvalue = [0, 0, 0, 0, 0, 1, 0, 0, 0, 0]"] ;
36 -> 37 ;
38 [label="gini = 0.0\nsamples = 1\nvalue = [0, 0, 0, 0, 0, 0, 0, 0, 0, 1]"] ;
36 -> 38 ;
39 [label="Num Atoms <= 4.5\ngini = 0.5\nsamples = 2\nvalue = [0, 0, 0, 1, 0, 1, 0, 0, 0, 0]"] ;
35 -> 39 ;
40 [label="gini = 0.0\nsamples = 1\nvalue = [0, 0, 0, 1, 0, 0, 0, 0, 0, 0]"] ;
39 -> 40 ;
41 [label="gini = 0.0\nsamples = 1\nvalue = [0, 0, 0, 0, 0, 1, 0, 0, 0, 0]"] ;
39 -> 41 ;
42 [label="Paper Relations <= 13.5\ngini = 0.823\nsamples = 27\nvalue = [0, 0, 1, 2, 4, 7, 5, 3, 5, 0]"] ;
6 -> 42 ;
43 [label="Num Relations <= 0.5\ngini = 0.675\nsamples = 13\nvalue = [0, 0, 0, 0, 0, 6, 3, 1, 3, 0]"] ;
42 -> 43 ;
44 [label="Paper Relations <= 8.5\ngini = 0.612\nsamples = 11\nvalue = [0, 0, 0, 0, 0, 6, 1, 1, 3, 0]"] ;
43 -> 44 ;
45 [label="Context Type <= 0.5\ngini = 0.56\nsamples = 5\nvalue = [0, 0, 0, 0, 0, 1, 1, 0, 3, 0]"] ;
44 -> 45 ;
46 [label="gini = 0.0\nsamples = 3\nvalue = [0, 0, 0, 0, 0, 0, 0, 0, 3, 0]"] ;
45 -> 46 ;
47 [label="Common_PubMed_IDs <= 8.5\ngini = 0.5\nsamples = 2\nvalue = [0, 0, 0, 0, 0, 1, 1, 0, 0, 0]"] ;
45 -> 47 ;
48 [label="gini = 0.0\nsamples = 1\nvalue = [0, 0, 0, 0, 0, 0, 1, 0, 0, 0]"] ;
47 -> 48 ;
49 [label="gini = 0.0\nsamples = 1\nvalue = [0, 0, 0, 0, 0, 1, 0, 0, 0, 0]"] ;
47 -> 49 ;
50 [label="Concept Relation <= 1.0\ngini = 0.278\nsamples = 6\nvalue = [0, 0, 0, 0, 0, 5, 0, 1, 0, 0]"] ;
44 -> 50 ;
51 [label="gini = 0.0\nsamples = 5\nvalue = [0, 0, 0, 0, 0, 5, 0, 0, 0, 0]"] ;
50 -> 51 ;
52 [label="gini = 0.0\nsamples = 1\nvalue = [0, 0, 0, 0, 0, 0, 0, 1, 0, 0]"] ;
50 -> 52 ;
53 [label="gini = 0.0\nsamples = 2\nvalue = [0, 0, 0, 0, 0, 0, 2, 0, 0, 0]"] ;
43 -> 53 ;
54 [label="Concept Relation <= 1.0\ngini = 0.827\nsamples = 14\nvalue = [0, 0, 1, 2, 4, 1, 2, 2, 2, 0]"] ;
42 -> 54 ;
55 [label="Num Atoms <= 1.5\ngini = 0.792\nsamples = 12\nvalue = [0, 0, 1, 0, 4, 1, 2, 2, 2, 0]"] ;
54 -> 55 ;
56 [label="Common_PubMed_IDs <= 1.5\ngini = 0.375\nsamples = 4\nvalue = [0, 0, 0, 0, 3, 0, 0, 1, 0, 0]"] ;
55 -> 56 ;
57 [label="gini = 0.0\nsamples = 1\nvalue = [0, 0, 0, 0, 0, 0, 0, 1, 0, 0]"] ;
56 -> 57 ;
58 [label="gini = 0.0\nsamples = 3\nvalue = [0, 0, 0, 0, 3, 0, 0, 0, 0, 0]"] ;
56 -> 58 ;
59 [label="Num Atoms <= 2.5\ngini = 0.813\nsamples = 8\nvalue = [0, 0, 1, 0, 1, 1, 2, 1, 2, 0]"] ;
55 -> 59 ;
60 [label="gini = 0.0\nsamples = 2\nvalue = [0, 0, 0, 0, 0, 0, 0, 0, 2, 0]"] ;
59 -> 60 ;
61 [label="Num Atoms <= 3.5\ngini = 0.778\nsamples = 6\nvalue = [0, 0, 1, 0, 1, 1, 2, 1, 0, 0]"] ;
59 -> 61 ;
62 [label="Common_PubMed_IDs <= 45.0\ngini = 0.625\nsamples = 4\nvalue = [0, 0, 1, 0, 0, 1, 2, 0, 0, 0]"] ;
61 -> 62 ;
63 [label="gini = 0.444\nsamples = 3\nvalue = [0, 0, 0, 0, 0, 1, 2, 0, 0, 0]"] ;
62 -> 63 ;
64 [label="gini = 0.0\nsamples = 1\nvalue = [0, 0, 1, 0, 0, 0, 0, 0, 0, 0]"] ;
62 -> 64 ;
65 [label="Common_PubMed_IDs <= 8.5\ngini = 0.5\nsamples = 2\nvalue = [0, 0, 0, 0, 1, 0, 0, 1, 0, 0]"] ;
61 -> 65 ;
66 [label="gini = 0.0\nsamples = 1\nvalue = [0, 0, 0, 0, 0, 0, 0, 1, 0, 0]"] ;
65 -> 66 ;
67 [label="gini = 0.0\nsamples = 1\nvalue = [0, 0, 0, 0, 1, 0, 0, 0, 0, 0]"] ;
65 -> 67 ;
68 [label="gini = 0.0\nsamples = 2\nvalue = [0, 0, 0, 2, 0, 0, 0, 0, 0, 0]"] ;
54 -> 68 ;
69 [label="Common_PubMed_IDs <= 3.5\ngini = 0.796\nsamples = 44\nvalue = [0, 0, 0, 6, 3, 7, 13, 3, 11, 1]"] ;
5 -> 69 ;
70 [label="Num Relations <= 0.5\ngini = 0.729\nsamples = 24\nvalue = [0, 0, 0, 0, 1, 5, 10, 2, 5, 1]"] ;
69 -> 70 ;
71 [label="Context Type <= 0.5\ngini = 0.663\nsamples = 14\nvalue = [0, 0, 0, 0, 0, 2, 6, 0, 5, 1]"] ;
70 -> 71 ;
72 [label="Num Atoms <= 19.0\ngini = 0.5\nsamples = 4\nvalue = [0, 0, 0, 0, 0, 2, 2, 0, 0, 0]"] ;
71 -> 72 ;
73 [label="gini = 0.0\nsamples = 2\nvalue = [0, 0, 0, 0, 0, 2, 0, 0, 0, 0]"] ;
72 -> 73 ;
74 [label="gini = 0.0\nsamples = 2\nvalue = [0, 0, 0, 0, 0, 0, 2, 0, 0, 0]"] ;
72 -> 74 ;
75 [label="Common_PubMed_IDs <= 1.5\ngini = 0.58\nsamples = 10\nvalue = [0, 0, 0, 0, 0, 0, 4, 0, 5, 1]"] ;
71 -> 75 ;
76 [label="Common_PubMed_IDs <= 0.5\ngini = 0.531\nsamples = 8\nvalue = [0, 0, 0, 0, 0, 0, 2, 0, 5, 1]"] ;
75 -> 76 ;
77 [label="Num Atoms <= 9.0\ngini = 0.32\nsamples = 5\nvalue = [0, 0, 0, 0, 0, 0, 1, 0, 4, 0]"] ;
76 -> 77 ;
78 [label="gini = 0.0\nsamples = 2\nvalue = [0, 0, 0, 0, 0, 0, 0, 0, 2, 0]"] ;
77 -> 78 ;
79 [label="Num Atoms <= 10.5\ngini = 0.444\nsamples = 3\nvalue = [0, 0, 0, 0, 0, 0, 1, 0, 2, 0]"] ;
77 -> 79 ;
80 [label="gini = 0.0\nsamples = 1\nvalue = [0, 0, 0, 0, 0, 0, 1, 0, 0, 0]"] ;
79 -> 80 ;
81 [label="gini = 0.0\nsamples = 2\nvalue = [0, 0, 0, 0, 0, 0, 0, 0, 2, 0]"] ;
79 -> 81 ;
82 [label="Paper Relations <= 7.0\ngini = 0.667\nsamples = 3\nvalue = [0, 0, 0, 0, 0, 0, 1, 0, 1, 1]"] ;
76 -> 82 ;
83 [label="gini = 0.0\nsamples = 1\nvalue = [0, 0, 0, 0, 0, 0, 0, 0, 0, 1]"] ;
82 -> 83 ;
84 [label="gini = 0.5\nsamples = 2\nvalue = [0, 0, 0, 0, 0, 0, 1, 0, 1, 0]"] ;
82 -> 84 ;
85 [label="gini = 0.0\nsamples = 2\nvalue = [0, 0, 0, 0, 0, 0, 2, 0, 0, 0]"] ;
75 -> 85 ;
86 [label="Num Atoms <= 14.0\ngini = 0.7\nsamples = 10\nvalue = [0, 0, 0, 0, 1, 3, 4, 2, 0, 0]"] ;
70 -> 86 ;
87 [label="Paper Relations <= 6.5\ngini = 0.722\nsamples = 6\nvalue = [0, 0, 0, 0, 1, 2, 1, 2, 0, 0]"] ;
86 -> 87 ;
88 [label="Context Type <= 0.5\ngini = 0.64\nsamples = 5\nvalue = [0, 0, 0, 0, 1, 2, 0, 2, 0, 0]"] ;
87 -> 88 ;
89 [label="gini = 0.0\nsamples = 1\nvalue = [0, 0, 0, 0, 1, 0, 0, 0, 0, 0]"] ;
88 -> 89 ;
90 [label="Common_PubMed_IDs <= 0.5\ngini = 0.5\nsamples = 4\nvalue = [0, 0, 0, 0, 0, 2, 0, 2, 0, 0]"] ;
88 -> 90 ;
91 [label="gini = 0.0\nsamples = 1\nvalue = [0, 0, 0, 0, 0, 1, 0, 0, 0, 0]"] ;
90 -> 91 ;
92 [label="Common_PubMed_IDs <= 2.5\ngini = 0.444\nsamples = 3\nvalue = [0, 0, 0, 0, 0, 1, 0, 2, 0, 0]"] ;
90 -> 92 ;
93 [label="gini = 0.0\nsamples = 2\nvalue = [0, 0, 0, 0, 0, 0, 0, 2, 0, 0]"] ;
92 -> 93 ;
94 [label="gini = 0.0\nsamples = 1\nvalue = [0, 0, 0, 0, 0, 1, 0, 0, 0, 0]"] ;
92 -> 94 ;
95 [label="gini = 0.0\nsamples = 1\nvalue = [0, 0, 0, 0, 0, 0, 1, 0, 0, 0]"] ;
87 -> 95 ;
96 [label="Num Atoms <= 19.5\ngini = 0.375\nsamples = 4\nvalue = [0, 0, 0, 0, 0, 1, 3, 0, 0, 0]"] ;
86 -> 96 ;
97 [label="gini = 0.0\nsamples = 2\nvalue = [0, 0, 0, 0, 0, 0, 2, 0, 0, 0]"] ;
96 -> 97 ;
98 [label="Common_PubMed_IDs <= 0.5\ngini = 0.5\nsamples = 2\nvalue = [0, 0, 0, 0, 0, 1, 1, 0, 0, 0]"] ;
96 -> 98 ;
99 [label="gini = 0.0\nsamples = 1\nvalue = [0, 0, 0, 0, 0, 1, 0, 0, 0, 0]"] ;
98 -> 99 ;
100 [label="gini = 0.0\nsamples = 1\nvalue = [0, 0, 0, 0, 0, 0, 1, 0, 0, 0]"] ;
98 -> 100 ;
101 [label="Paper Relations <= 8.0\ngini = 0.775\nsamples = 20\nvalue = [0, 0, 0, 6, 2, 2, 3, 1, 6, 0]"] ;
69 -> 101 ;
102 [label="Common_PubMed_IDs <= 6.5\ngini = 0.278\nsamples = 6\nvalue = [0, 0, 0, 1, 0, 0, 0, 0, 5, 0]"] ;
101 -> 102 ;
103 [label="gini = 0.0\nsamples = 1\nvalue = [0, 0, 0, 1, 0, 0, 0, 0, 0, 0]"] ;
102 -> 103 ;
104 [label="gini = 0.0\nsamples = 5\nvalue = [0, 0, 0, 0, 0, 0, 0, 0, 5, 0]"] ;
102 -> 104 ;
105 [label="Paper Relations <= 14.5\ngini = 0.776\nsamples = 14\nvalue = [0, 0, 0, 5, 2, 2, 3, 1, 1, 0]"] ;
101 -> 105 ;
106 [label="Context Type <= 0.5\ngini = 0.74\nsamples = 10\nvalue = [0, 0, 0, 4, 2, 2, 1, 1, 0, 0]"] ;
105 -> 106 ;
107 [label="Paper Relations <= 12.5\ngini = 0.625\nsamples = 4\nvalue = [0, 0, 0, 1, 2, 0, 1, 0, 0, 0]"] ;
106 -> 107 ;
108 [label="Num Atoms <= 24.5\ngini = 0.5\nsamples = 2\nvalue = [0, 0, 0, 1, 1, 0, 0, 0, 0, 0]"] ;
107 -> 108 ;
109 [label="gini = 0.0\nsamples = 1\nvalue = [0, 0, 0, 1, 0, 0, 0, 0, 0, 0]"] ;
108 -> 109 ;
110 [label="gini = 0.0\nsamples = 1\nvalue = [0, 0, 0, 0, 1, 0, 0, 0, 0, 0]"] ;
108 -> 110 ;
111 [label="Common_PubMed_IDs <= 18.0\ngini = 0.5\nsamples = 2\nvalue = [0, 0, 0, 0, 1, 0, 1, 0, 0, 0]"] ;
107 -> 111 ;
112 [label="gini = 0.0\nsamples = 1\nvalue = [0, 0, 0, 0, 1, 0, 0, 0, 0, 0]"] ;
111 -> 112 ;
113 [label="gini = 0.0\nsamples = 1\nvalue = [0, 0, 0, 0, 0, 0, 1, 0, 0, 0]"] ;
111 -> 113 ;
114 [label="Paper Relations <= 13.5\ngini = 0.611\nsamples = 6\nvalue = [0, 0, 0, 3, 0, 2, 0, 1, 0, 0]"] ;
106 -> 114 ;
115 [label="Common_PubMed_IDs <= 18.0\ngini = 0.48\nsamples = 5\nvalue = [0, 0, 0, 3, 0, 2, 0, 0, 0, 0]"] ;
114 -> 115 ;
116 [label="gini = 0.0\nsamples = 2\nvalue = [0, 0, 0, 2, 0, 0, 0, 0, 0, 0]"] ;
115 -> 116 ;
117 [label="Concept Relation <= 1.0\ngini = 0.444\nsamples = 3\nvalue = [0, 0, 0, 1, 0, 2, 0, 0, 0, 0]"] ;
115 -> 117 ;
118 [label="gini = 0.0\nsamples = 1\nvalue = [0, 0, 0, 1, 0, 0, 0, 0, 0, 0]"] ;
117 -> 118 ;
119 [label="gini = 0.0\nsamples = 2\nvalue = [0, 0, 0, 0, 0, 2, 0, 0, 0, 0]"] ;
117 -> 119 ;
120 [label="gini = 0.0\nsamples = 1\nvalue = [0, 0, 0, 0, 0, 0, 0, 1, 0, 0]"] ;
114 -> 120 ;
121 [label="Context Type <= 0.5\ngini = 0.625\nsamples = 4\nvalue = [0, 0, 0, 1, 0, 0, 2, 0, 1, 0]"] ;
105 -> 121 ;
122 [label="gini = 0.0\nsamples = 1\nvalue = [0, 0, 0, 1, 0, 0, 0, 0, 0, 0]"] ;
121 -> 122 ;
123 [label="Common_PubMed_IDs <= 69.5\ngini = 0.444\nsamples = 3\nvalue = [0, 0, 0, 0, 0, 0, 2, 0, 1, 0]"] ;
121 -> 123 ;
124 [label="gini = 0.0\nsamples = 2\nvalue = [0, 0, 0, 0, 0, 0, 2, 0, 0, 0]"] ;
123 -> 124 ;
125 [label="gini = 0.0\nsamples = 1\nvalue = [0, 0, 0, 0, 0, 0, 0, 0, 1, 0]"] ;
123 -> 125 ;
126 [label="Paper Relations <= 17.0\ngini = 0.594\nsamples = 8\nvalue = [0, 0, 1, 0, 0, 0, 3, 0, 0, 4]"] ;
4 -> 126 ;
127 [label="Num Atoms <= 24.5\ngini = 0.49\nsamples = 7\nvalue = [0, 0, 0, 0, 0, 0, 3, 0, 0, 4]"] ;
126 -> 127 ;
128 [label="Common_PubMed_IDs <= 282.5\ngini = 0.444\nsamples = 6\nvalue = [0, 0, 0, 0, 0, 0, 2, 0, 0, 4]"] ;
127 -> 128 ;
129 [label="gini = 0.0\nsamples = 1\nvalue = [0, 0, 0, 0, 0, 0, 1, 0, 0, 0]"] ;
128 -> 129 ;
130 [label="Common_PubMed_IDs <= 985.0\ngini = 0.32\nsamples = 5\nvalue = [0, 0, 0, 0, 0, 0, 1, 0, 0, 4]"] ;
128 -> 130 ;
131 [label="gini = 0.0\nsamples = 3\nvalue = [0, 0, 0, 0, 0, 0, 0, 0, 0, 3]"] ;
130 -> 131 ;
132 [label="Context Type <= 0.5\ngini = 0.5\nsamples = 2\nvalue = [0, 0, 0, 0, 0, 0, 1, 0, 0, 1]"] ;
130 -> 132 ;
133 [label="gini = 0.0\nsamples = 1\nvalue = [0, 0, 0, 0, 0, 0, 1, 0, 0, 0]"] ;
132 -> 133 ;
134 [label="gini = 0.0\nsamples = 1\nvalue = [0, 0, 0, 0, 0, 0, 0, 0, 0, 1]"] ;
132 -> 134 ;
135 [label="gini = 0.0\nsamples = 1\nvalue = [0, 0, 0, 0, 0, 0, 1, 0, 0, 0]"] ;
127 -> 135 ;
136 [label="gini = 0.0\nsamples = 1\nvalue = [0, 0, 1, 0, 0, 0, 0, 0, 0, 0]"] ;
126 -> 136 ;
137 [label="Common_PubMed_IDs <= 0.5\ngini = 0.805\nsamples = 61\nvalue = [0, 3, 5, 1, 2, 7, 14, 20, 5, 4]"] ;
3 -> 137 ;
138 [label="Num Atoms <= 22.0\ngini = 0.716\nsamples = 9\nvalue = [0, 0, 3, 0, 1, 3, 2, 0, 0, 0]"] ;
137 -> 138 ;
139 [label="Context Type <= 0.5\ngini = 0.625\nsamples = 4\nvalue = [0, 0, 1, 0, 1, 0, 2, 0, 0, 0]"] ;
138 -> 139 ;
140 [label="Num Atoms <= 11.5\ngini = 0.444\nsamples = 3\nvalue = [0, 0, 1, 0, 0, 0, 2, 0, 0, 0]"] ;
139 -> 140 ;
141 [label="gini = 0.0\nsamples = 1\nvalue = [0, 0, 1, 0, 0, 0, 0, 0, 0, 0]"] ;
140 -> 141 ;
142 [label="gini = 0.0\nsamples = 2\nvalue = [0, 0, 0, 0, 0, 0, 2, 0, 0, 0]"] ;
140 -> 142 ;
143 [label="gini = 0.0\nsamples = 1\nvalue = [0, 0, 0, 0, 1, 0, 0, 0, 0, 0]"] ;
139 -> 143 ;
144 [label="Num Relations <= 5.0\ngini = 0.48\nsamples = 5\nvalue = [0, 0, 2, 0, 0, 3, 0, 0, 0, 0]"] ;
138 -> 144 ;
145 [label="gini = 0.0\nsamples = 2\nvalue = [0, 0, 0, 0, 0, 2, 0, 0, 0, 0]"] ;
144 -> 145 ;
146 [label="Num Relations <= 9.5\ngini = 0.444\nsamples = 3\nvalue = [0, 0, 2, 0, 0, 1, 0, 0, 0, 0]"] ;
144 -> 146 ;
147 [label="gini = 0.0\nsamples = 2\nvalue = [0, 0, 2, 0, 0, 0, 0, 0, 0, 0]"] ;
146 -> 147 ;
148 [label="gini = 0.0\nsamples = 1\nvalue = [0, 0, 0, 0, 0, 1, 0, 0, 0, 0]"] ;
146 -> 148 ;
149 [label="Num Atoms <= 15.0\ngini = 0.772\nsamples = 52\nvalue = [0, 3, 2, 1, 1, 4, 12, 20, 5, 4]"] ;
137 -> 149 ;
150 [label="Paper Relations <= 1.5\ngini = 0.776\nsamples = 7\nvalue = [0, 1, 2, 1, 0, 2, 0, 1, 0, 0]"] ;
149 -> 150 ;
151 [label="gini = 0.0\nsamples = 2\nvalue = [0, 0, 0, 0, 0, 2, 0, 0, 0, 0]"] ;
150 -> 151 ;
152 [label="Num Atoms <= 6.5\ngini = 0.72\nsamples = 5\nvalue = [0, 1, 2, 1, 0, 0, 0, 1, 0, 0]"] ;
150 -> 152 ;
153 [label="Paper Relations <= 15.0\ngini = 0.5\nsamples = 2\nvalue = [0, 0, 0, 1, 0, 0, 0, 1, 0, 0]"] ;
152 -> 153 ;
154 [label="gini = 0.0\nsamples = 1\nvalue = [0, 0, 0, 0, 0, 0, 0, 1, 0, 0]"] ;
153 -> 154 ;
155 [label="gini = 0.0\nsamples = 1\nvalue = [0, 0, 0, 1, 0, 0, 0, 0, 0, 0]"] ;
153 -> 155 ;
156 [label="Num Atoms <= 11.5\ngini = 0.444\nsamples = 3\nvalue = [0, 1, 2, 0, 0, 0, 0, 0, 0, 0]"] ;
152 -> 156 ;
157 [label="gini = 0.0\nsamples = 2\nvalue = [0, 0, 2, 0, 0, 0, 0, 0, 0, 0]"] ;
156 -> 157 ;
158 [label="gini = 0.0\nsamples = 1\nvalue = [0, 1, 0, 0, 0, 0, 0, 0, 0, 0]"] ;
156 -> 158 ;
159 [label="Common_PubMed_IDs <= 2.5\ngini = 0.726\nsamples = 45\nvalue = [0, 2, 0, 0, 1, 2, 12, 19, 5, 4]"] ;
149 -> 159 ;
160 [label="gini = 0.0\nsamples = 3\nvalue = [0, 0, 0, 0, 0, 0, 3, 0, 0, 0]"] ;
159 -> 160 ;
161 [label="Num Relations <= 10.5\ngini = 0.721\nsamples = 42\nvalue = [0, 2, 0, 0, 1, 2, 9, 19, 5, 4]"] ;
159 -> 161 ;
162 [label="Common_PubMed_IDs <= 40.0\ngini = 0.707\nsamples = 37\nvalue = [0, 2, 0, 0, 1, 2, 6, 18, 4, 4]"] ;
161 -> 162 ;
163 [label="Num Relations <= 2.5\ngini = 0.769\nsamples = 13\nvalue = [0, 0, 0, 0, 1, 0, 3, 4, 2, 3]"] ;
162 -> 163 ;
164 [label="Common_PubMed_IDs <= 26.0\ngini = 0.375\nsamples = 4\nvalue = [0, 0, 0, 0, 0, 0, 3, 1, 0, 0]"] ;
163 -> 164 ;
165 [label="gini = 0.0\nsamples = 3\nvalue = [0, 0, 0, 0, 0, 0, 3, 0, 0, 0]"] ;
164 -> 165 ;
166 [label="gini = 0.0\nsamples = 1\nvalue = [0, 0, 0, 0, 0, 0, 0, 1, 0, 0]"] ;
164 -> 166 ;
167 [label="Common_PubMed_IDs <= 24.5\ngini = 0.716\nsamples = 9\nvalue = [0, 0, 0, 0, 1, 0, 0, 3, 2, 3]"] ;
163 -> 167 ;
168 [label="Common_PubMed_IDs <= 9.0\ngini = 0.48\nsamples = 5\nvalue = [0, 0, 0, 0, 0, 0, 0, 3, 0, 2]"] ;
167 -> 168 ;
169 [label="Context Type <= 0.5\ngini = 0.444\nsamples = 3\nvalue = [0, 0, 0, 0, 0, 0, 0, 1, 0, 2]"] ;
168 -> 169 ;
170 [label="gini = 0.0\nsamples = 2\nvalue = [0, 0, 0, 0, 0, 0, 0, 0, 0, 2]"] ;
169 -> 170 ;
171 [label="gini = 0.0\nsamples = 1\nvalue = [0, 0, 0, 0, 0, 0, 0, 1, 0, 0]"] ;
169 -> 171 ;
172 [label="gini = 0.0\nsamples = 2\nvalue = [0, 0, 0, 0, 0, 0, 0, 2, 0, 0]"] ;
168 -> 172 ;
173 [label="Num Atoms <= 24.5\ngini = 0.625\nsamples = 4\nvalue = [0, 0, 0, 0, 1, 0, 0, 0, 2, 1]"] ;
167 -> 173 ;
174 [label="Common_PubMed_IDs <= 36.0\ngini = 0.444\nsamples = 3\nvalue = [0, 0, 0, 0, 0, 0, 0, 0, 2, 1]"] ;
173 -> 174 ;
175 [label="gini = 0.0\nsamples = 2\nvalue = [0, 0, 0, 0, 0, 0, 0, 0, 2, 0]"] ;
174 -> 175 ;
176 [label="gini = 0.0\nsamples = 1\nvalue = [0, 0, 0, 0, 0, 0, 0, 0, 0, 1]"] ;
174 -> 176 ;
177 [label="gini = 0.0\nsamples = 1\nvalue = [0, 0, 0, 0, 1, 0, 0, 0, 0, 0]"] ;
173 -> 177 ;
178 [label="Common_PubMed_IDs <= 95.5\ngini = 0.622\nsamples = 24\nvalue = [0, 2, 0, 0, 0, 2, 3, 14, 2, 1]"] ;
162 -> 178 ;
179 [label="Context Type <= 0.5\ngini = 0.219\nsamples = 8\nvalue = [0, 0, 0, 0, 0, 0, 1, 7, 0, 0]"] ;
178 -> 179 ;
180 [label="gini = 0.0\nsamples = 1\nvalue = [0, 0, 0, 0, 0, 0, 1, 0, 0, 0]"] ;
179 -> 180 ;
181 [label="gini = 0.0\nsamples = 7\nvalue = [0, 0, 0, 0, 0, 0, 0, 7, 0, 0]"] ;
179 -> 181 ;
182 [label="Paper Relations <= 14.5\ngini = 0.742\nsamples = 16\nvalue = [0, 2, 0, 0, 0, 2, 2, 7, 2, 1]"] ;
178 -> 182 ;
183 [label="Paper Relations <= 6.0\ngini = 0.545\nsamples = 11\nvalue = [0, 2, 0, 0, 0, 1, 0, 7, 0, 1]"] ;
182 -> 183 ;
184 [label="Num Relations <= 4.0\ngini = 0.449\nsamples = 7\nvalue = [0, 0, 0, 0, 0, 1, 0, 5, 0, 1]"] ;
183 -> 184 ;
185 [label="Common_PubMed_IDs <= 314.0\ngini = 0.32\nsamples = 5\nvalue = [0, 0, 0, 0, 0, 0, 0, 4, 0, 1]"] ;
184 -> 185 ;
186 [label="Num Atoms <= 20.5\ngini = 0.5\nsamples = 2\nvalue = [0, 0, 0, 0, 0, 0, 0, 1, 0, 1]"] ;
185 -> 186 ;
187 [label="gini = 0.0\nsamples = 1\nvalue = [0, 0, 0, 0, 0, 0, 0, 0, 0, 1]"] ;
186 -> 187 ;
188 [label="gini = 0.0\nsamples = 1\nvalue = [0, 0, 0, 0, 0, 0, 0, 1, 0, 0]"] ;
186 -> 188 ;
189 [label="gini = 0.0\nsamples = 3\nvalue = [0, 0, 0, 0, 0, 0, 0, 3, 0, 0]"] ;
185 -> 189 ;
190 [label="Paper Relations <= 1.0\ngini = 0.5\nsamples = 2\nvalue = [0, 0, 0, 0, 0, 1, 0, 1, 0, 0]"] ;
184 -> 190 ;
191 [label="gini = 0.0\nsamples = 1\nvalue = [0, 0, 0, 0, 0, 0, 0, 1, 0, 0]"] ;
190 -> 191 ;
192 [label="gini = 0.0\nsamples = 1\nvalue = [0, 0, 0, 0, 0, 1, 0, 0, 0, 0]"] ;
190 -> 192 ;
193 [label="Paper Relations <= 10.5\ngini = 0.5\nsamples = 4\nvalue = [0, 2, 0, 0, 0, 0, 0, 2, 0, 0]"] ;
183 -> 193 ;
194 [label="gini = 0.0\nsamples = 1\nvalue = [0, 1, 0, 0, 0, 0, 0, 0, 0, 0]"] ;
193 -> 194 ;
195 [label="Num Relations <= 3.5\ngini = 0.444\nsamples = 3\nvalue = [0, 1, 0, 0, 0, 0, 0, 2, 0, 0]"] ;
193 -> 195 ;
196 [label="gini = 0.0\nsamples = 2\nvalue = [0, 0, 0, 0, 0, 0, 0, 2, 0, 0]"] ;
195 -> 196 ;
197 [label="gini = 0.0\nsamples = 1\nvalue = [0, 1, 0, 0, 0, 0, 0, 0, 0, 0]"] ;
195 -> 197 ;
198 [label="Num Relations <= 2.5\ngini = 0.64\nsamples = 5\nvalue = [0, 0, 0, 0, 0, 1, 2, 0, 2, 0]"] ;
182 -> 198 ;
199 [label="gini = 0.0\nsamples = 2\nvalue = [0, 0, 0, 0, 0, 0, 2, 0, 0, 0]"] ;
198 -> 199 ;
200 [label="Context Type <= 0.5\ngini = 0.444\nsamples = 3\nvalue = [0, 0, 0, 0, 0, 1, 0, 0, 2, 0]"] ;
198 -> 200 ;
201 [label="gini = 0.0\nsamples = 1\nvalue = [0, 0, 0, 0, 0, 1, 0, 0, 0, 0]"] ;
200 -> 201 ;
202 [label="gini = 0.0\nsamples = 2\nvalue = [0, 0, 0, 0, 0, 0, 0, 0, 2, 0]"] ;
200 -> 202 ;
203 [label="Common_PubMed_IDs <= 18.0\ngini = 0.56\nsamples = 5\nvalue = [0, 0, 0, 0, 0, 0, 3, 1, 1, 0]"] ;
161 -> 203 ;
204 [label="gini = 0.0\nsamples = 1\nvalue = [0, 0, 0, 0, 0, 0, 0, 1, 0, 0]"] ;
203 -> 204 ;
205 [label="Common_PubMed_IDs <= 160.5\ngini = 0.375\nsamples = 4\nvalue = [0, 0, 0, 0, 0, 0, 3, 0, 1, 0]"] ;
203 -> 205 ;
206 [label="Num Relations <= 12.5\ngini = 0.5\nsamples = 2\nvalue = [0, 0, 0, 0, 0, 0, 1, 0, 1, 0]"] ;
205 -> 206 ;
207 [label="gini = 0.0\nsamples = 1\nvalue = [0, 0, 0, 0, 0, 0, 1, 0, 0, 0]"] ;
206 -> 207 ;
208 [label="gini = 0.0\nsamples = 1\nvalue = [0, 0, 0, 0, 0, 0, 0, 0, 1, 0]"] ;
206 -> 208 ;
209 [label="gini = 0.0\nsamples = 2\nvalue = [0, 0, 0, 0, 0, 0, 2, 0, 0, 0]"] ;
205 -> 209 ;
210 [label="Paper Relations <= 25.5\ngini = 0.839\nsamples = 62\nvalue = [0, 1, 3, 13, 13, 9, 12, 2, 4, 5]"] ;
2 -> 210 ;
211 [label="Context Type <= 0.5\ngini = 0.827\nsamples = 36\nvalue = [0, 0, 3, 6, 7, 2, 10, 1, 4, 3]"] ;
210 -> 211 ;
212 [label="Paper Relations <= 22.5\ngini = 0.776\nsamples = 14\nvalue = [0, 0, 3, 0, 2, 2, 5, 1, 1, 0]"] ;
211 -> 212 ;
213 [label="Num Atoms <= 6.0\ngini = 0.716\nsamples = 9\nvalue = [0, 0, 3, 0, 0, 2, 3, 0, 1, 0]"] ;
212 -> 213 ;
214 [label="Num Atoms <= 2.5\ngini = 0.5\nsamples = 2\nvalue = [0, 0, 0, 0, 0, 1, 0, 0, 1, 0]"] ;
213 -> 214 ;
215 [label="gini = 0.0\nsamples = 1\nvalue = [0, 0, 0, 0, 0, 1, 0, 0, 0, 0]"] ;
214 -> 215 ;
216 [label="gini = 0.0\nsamples = 1\nvalue = [0, 0, 0, 0, 0, 0, 0, 0, 1, 0]"] ;
214 -> 216 ;
217 [label="Paper Relations <= 19.5\ngini = 0.612\nsamples = 7\nvalue = [0, 0, 3, 0, 0, 1, 3, 0, 0, 0]"] ;
213 -> 217 ;
218 [label="gini = 0.0\nsamples = 2\nvalue = [0, 0, 0, 0, 0, 0, 2, 0, 0, 0]"] ;
217 -> 218 ;
219 [label="Num Atoms <= 16.5\ngini = 0.56\nsamples = 5\nvalue = [0, 0, 3, 0, 0, 1, 1, 0, 0, 0]"] ;
217 -> 219 ;
220 [label="gini = 0.0\nsamples = 3\nvalue = [0, 0, 3, 0, 0, 0, 0, 0, 0, 0]"] ;
219 -> 220 ;
221 [label="Common_PubMed_IDs <= 161.0\ngini = 0.5\nsamples = 2\nvalue = [0, 0, 0, 0, 0, 1, 1, 0, 0, 0]"] ;
219 -> 221 ;
222 [label="gini = 0.0\nsamples = 1\nvalue = [0, 0, 0, 0, 0, 0, 1, 0, 0, 0]"] ;
221 -> 222 ;
223 [label="gini = 0.0\nsamples = 1\nvalue = [0, 0, 0, 0, 0, 1, 0, 0, 0, 0]"] ;
221 -> 223 ;
224 [label="Num Atoms <= 19.0\ngini = 0.64\nsamples = 5\nvalue = [0, 0, 0, 0, 2, 0, 2, 1, 0, 0]"] ;
212 -> 224 ;
225 [label="Num Relations <= 2.0\ngini = 0.5\nsamples = 4\nvalue = [0, 0, 0, 0, 2, 0, 2, 0, 0, 0]"] ;
224 -> 225 ;
226 [label="Num Atoms <= 2.0\ngini = 0.444\nsamples = 3\nvalue = [0, 0, 0, 0, 2, 0, 1, 0, 0, 0]"] ;
225 -> 226 ;
227 [label="gini = 0.0\nsamples = 1\nvalue = [0, 0, 0, 0, 0, 0, 1, 0, 0, 0]"] ;
226 -> 227 ;
228 [label="gini = 0.0\nsamples = 2\nvalue = [0, 0, 0, 0, 2, 0, 0, 0, 0, 0]"] ;
226 -> 228 ;
229 [label="gini = 0.0\nsamples = 1\nvalue = [0, 0, 0, 0, 0, 0, 1, 0, 0, 0]"] ;
225 -> 229 ;
230 [label="gini = 0.0\nsamples = 1\nvalue = [0, 0, 0, 0, 0, 0, 0, 1, 0, 0]"] ;
224 -> 230 ;
231 [label="Paper Relations <= 19.5\ngini = 0.785\nsamples = 22\nvalue = [0, 0, 0, 6, 5, 0, 5, 0, 3, 3]"] ;
211 -> 231 ;
232 [label="gini = 0.0\nsamples = 2\nvalue = [0, 0, 0, 0, 2, 0, 0, 0, 0, 0]"] ;
231 -> 232 ;
233 [label="Num Atoms <= 7.0\ngini = 0.78\nsamples = 20\nvalue = [0, 0, 0, 6, 3, 0, 5, 0, 3, 3]"] ;
231 -> 233 ;
234 [label="Num Atoms <= 3.5\ngini = 0.694\nsamples = 7\nvalue = [0, 0, 0, 0, 1, 0, 3, 0, 2, 1]"] ;
233 -> 234 ;
235 [label="Concept Relation <= 1.0\ngini = 0.5\nsamples = 2\nvalue = [0, 0, 0, 0, 1, 0, 0, 0, 1, 0]"] ;
234 -> 235 ;
236 [label="gini = 0.0\nsamples = 1\nvalue = [0, 0, 0, 0, 0, 0, 0, 0, 1, 0]"] ;
235 -> 236 ;
237 [label="gini = 0.0\nsamples = 1\nvalue = [0, 0, 0, 0, 1, 0, 0, 0, 0, 0]"] ;
235 -> 237 ;
238 [label="Paper Relations <= 20.5\ngini = 0.56\nsamples = 5\nvalue = [0, 0, 0, 0, 0, 0, 3, 0, 1, 1]"] ;
234 -> 238 ;
239 [label="gini = 0.0\nsamples = 1\nvalue = [0, 0, 0, 0, 0, 0, 0, 0, 1, 0]"] ;
238 -> 239 ;
240 [label="Common_PubMed_IDs <= 21.5\ngini = 0.375\nsamples = 4\nvalue = [0, 0, 0, 0, 0, 0, 3, 0, 0, 1]"] ;
238 -> 240 ;
241 [label="Concept Relation <= 1.0\ngini = 0.5\nsamples = 2\nvalue = [0, 0, 0, 0, 0, 0, 1, 0, 0, 1]"] ;
240 -> 241 ;
242 [label="gini = 0.0\nsamples = 1\nvalue = [0, 0, 0, 0, 0, 0, 0, 0, 0, 1]"] ;
241 -> 242 ;
243 [label="gini = 0.0\nsamples = 1\nvalue = [0, 0, 0, 0, 0, 0, 1, 0, 0, 0]"] ;
241 -> 243 ;
244 [label="gini = 0.0\nsamples = 2\nvalue = [0, 0, 0, 0, 0, 0, 2, 0, 0, 0]"] ;
240 -> 244 ;
245 [label="Num Atoms <= 22.5\ngini = 0.71\nsamples = 13\nvalue = [0, 0, 0, 6, 2, 0, 2, 0, 1, 2]"] ;
233 -> 245 ;
246 [label="Num Atoms <= 12.0\ngini = 0.32\nsamples = 5\nvalue = [0, 0, 0, 4, 0, 0, 0, 0, 1, 0]"] ;
245 -> 246 ;
247 [label="gini = 0.0\nsamples = 3\nvalue = [0, 0, 0, 3, 0, 0, 0, 0, 0, 0]"] ;
246 -> 247 ;
248 [label="Common_PubMed_IDs <= 70.5\ngini = 0.5\nsamples = 2\nvalue = [0, 0, 0, 1, 0, 0, 0, 0, 1, 0]"] ;
246 -> 248 ;
249 [label="gini = 0.0\nsamples = 1\nvalue = [0, 0, 0, 0, 0, 0, 0, 0, 1, 0]"] ;
248 -> 249 ;
250 [label="gini = 0.0\nsamples = 1\nvalue = [0, 0, 0, 1, 0, 0, 0, 0, 0, 0]"] ;
248 -> 250 ;
251 [label="Common_PubMed_IDs <= 17.0\ngini = 0.75\nsamples = 8\nvalue = [0, 0, 0, 2, 2, 0, 2, 0, 0, 2]"] ;
245 -> 251 ;
252 [label="gini = 0.0\nsamples = 2\nvalue = [0, 0, 0, 0, 0, 0, 2, 0, 0, 0]"] ;
251 -> 252 ;
253 [label="Paper Relations <= 21.5\ngini = 0.667\nsamples = 6\nvalue = [0, 0, 0, 2, 2, 0, 0, 0, 0, 2]"] ;
251 -> 253 ;
254 [label="gini = 0.0\nsamples = 2\nvalue = [0, 0, 0, 0, 2, 0, 0, 0, 0, 0]"] ;
253 -> 254 ;
255 [label="Num Relations <= 1.5\ngini = 0.5\nsamples = 4\nvalue = [0, 0, 0, 2, 0, 0, 0, 0, 0, 2]"] ;
253 -> 255 ;
256 [label="Common_PubMed_IDs <= 150.5\ngini = 0.444\nsamples = 3\nvalue = [0, 0, 0, 1, 0, 0, 0, 0, 0, 2]"] ;
255 -> 256 ;
257 [label="gini = 0.0\nsamples = 2\nvalue = [0, 0, 0, 0, 0, 0, 0, 0, 0, 2]"] ;
256 -> 257 ;
258 [label="gini = 0.0\nsamples = 1\nvalue = [0, 0, 0, 1, 0, 0, 0, 0, 0, 0]"] ;
256 -> 258 ;
259 [label="gini = 0.0\nsamples = 1\nvalue = [0, 0, 0, 1, 0, 0, 0, 0, 0, 0]"] ;
255 -> 259 ;
260 [label="Num Atoms <= 9.0\ngini = 0.787\nsamples = 26\nvalue = [0, 1, 0, 7, 6, 7, 2, 1, 0, 2]"] ;
210 -> 260 ;
261 [label="Paper Relations <= 26.5\ngini = 0.628\nsamples = 11\nvalue = [0, 1, 0, 6, 2, 2, 0, 0, 0, 0]"] ;
260 -> 261 ;
262 [label="gini = 0.0\nsamples = 2\nvalue = [0, 0, 0, 0, 0, 2, 0, 0, 0, 0]"] ;
261 -> 262 ;
263 [label="Common_PubMed_IDs <= 14.0\ngini = 0.494\nsamples = 9\nvalue = [0, 1, 0, 6, 2, 0, 0, 0, 0, 0]"] ;
261 -> 263 ;
264 [label="gini = 0.0\nsamples = 1\nvalue = [0, 1, 0, 0, 0, 0, 0, 0, 0, 0]"] ;
263 -> 264 ;
265 [label="Common_PubMed_IDs <= 383.5\ngini = 0.375\nsamples = 8\nvalue = [0, 0, 0, 6, 2, 0, 0, 0, 0, 0]"] ;
263 -> 265 ;
266 [label="Num Atoms <= 3.5\ngini = 0.245\nsamples = 7\nvalue = [0, 0, 0, 6, 1, 0, 0, 0, 0, 0]"] ;
265 -> 266 ;
267 [label="gini = 0.0\nsamples = 4\nvalue = [0, 0, 0, 4, 0, 0, 0, 0, 0, 0]"] ;
266 -> 267 ;
268 [label="Paper Relations <= 28.5\ngini = 0.444\nsamples = 3\nvalue = [0, 0, 0, 2, 1, 0, 0, 0, 0, 0]"] ;
266 -> 268 ;
269 [label="gini = 0.0\nsamples = 1\nvalue = [0, 0, 0, 0, 1, 0, 0, 0, 0, 0]"] ;
268 -> 269 ;
270 [label="gini = 0.0\nsamples = 2\nvalue = [0, 0, 0, 2, 0, 0, 0, 0, 0, 0]"] ;
268 -> 270 ;
271 [label="gini = 0.0\nsamples = 1\nvalue = [0, 0, 0, 0, 1, 0, 0, 0, 0, 0]"] ;
265 -> 271 ;
272 [label="Num Atoms <= 21.5\ngini = 0.773\nsamples = 15\nvalue = [0, 0, 0, 1, 4, 5, 2, 1, 0, 2]"] ;
260 -> 272 ;
273 [label="Num Atoms <= 20.0\ngini = 0.667\nsamples = 6\nvalue = [0, 0, 0, 0, 0, 2, 2, 0, 0, 2]"] ;
272 -> 273 ;
274 [label="Concept Relation <= 1.0\ngini = 0.5\nsamples = 4\nvalue = [0, 0, 0, 0, 0, 2, 2, 0, 0, 0]"] ;
273 -> 274 ;
275 [label="Context Type <= 0.5\ngini = 0.444\nsamples = 3\nvalue = [0, 0, 0, 0, 0, 1, 2, 0, 0, 0]"] ;
274 -> 275 ;
276 [label="gini = 0.0\nsamples = 1\nvalue = [0, 0, 0, 0, 0, 0, 1, 0, 0, 0]"] ;
275 -> 276 ;
277 [label="Num Atoms <= 18.5\ngini = 0.5\nsamples = 2\nvalue = [0, 0, 0, 0, 0, 1, 1, 0, 0, 0]"] ;
275 -> 277 ;
278 [label="gini = 0.0\nsamples = 1\nvalue = [0, 0, 0, 0, 0, 1, 0, 0, 0, 0]"] ;
277 -> 278 ;
279 [label="gini = 0.0\nsamples = 1\nvalue = [0, 0, 0, 0, 0, 0, 1, 0, 0, 0]"] ;
277 -> 279 ;
280 [label="gini = 0.0\nsamples = 1\nvalue = [0, 0, 0, 0, 0, 1, 0, 0, 0, 0]"] ;
274 -> 280 ;
281 [label="gini = 0.0\nsamples = 2\nvalue = [0, 0, 0, 0, 0, 0, 0, 0, 0, 2]"] ;
273 -> 281 ;
282 [label="Common_PubMed_IDs <= 287.0\ngini = 0.667\nsamples = 9\nvalue = [0, 0, 0, 1, 4, 3, 0, 1, 0, 0]"] ;
272 -> 282 ;
283 [label="gini = 0.0\nsamples = 3\nvalue = [0, 0, 0, 0, 3, 0, 0, 0, 0, 0]"] ;
282 -> 283 ;
284 [label="Paper Relations <= 66.0\ngini = 0.667\nsamples = 6\nvalue = [0, 0, 0, 1, 1, 3, 0, 1, 0, 0]"] ;
282 -> 284 ;
285 [label="gini = 0.0\nsamples = 3\nvalue = [0, 0, 0, 0, 0, 3, 0, 0, 0, 0]"] ;
284 -> 285 ;
286 [label="Concept Relation <= 1.0\ngini = 0.667\nsamples = 3\nvalue = [0, 0, 0, 1, 1, 0, 0, 1, 0, 0]"] ;
284 -> 286 ;
287 [label="Paper Relations <= 82.0\ngini = 0.5\nsamples = 2\nvalue = [0, 0, 0, 0, 1, 0, 0, 1, 0, 0]"] ;
286 -> 287 ;
288 [label="gini = 0.0\nsamples = 1\nvalue = [0, 0, 0, 0, 0, 0, 0, 1, 0, 0]"] ;
287 -> 288 ;
289 [label="gini = 0.0\nsamples = 1\nvalue = [0, 0, 0, 0, 1, 0, 0, 0, 0, 0]"] ;
287 -> 289 ;
290 [label="gini = 0.0\nsamples = 1\nvalue = [0, 0, 0, 1, 0, 0, 0, 0, 0, 0]"] ;
286 -> 290 ;
291 [label="ID Relation <= 1.5\ngini = 0.865\nsamples = 83\nvalue = [3, 19, 9, 5, 7, 11, 13, 10, 3, 3]"] ;
1 -> 291 ;
292 [label="Paper Relations <= 15.5\ngini = 0.477\nsamples = 25\nvalue = [1, 17, 6, 0, 0, 0, 0, 1, 0, 0]"] ;
291 -> 292 ;
293 [label="Common_PubMed_IDs <= 22.0\ngini = 0.436\nsamples = 15\nvalue = [1, 11, 2, 0, 0, 0, 0, 1, 0, 0]"] ;
292 -> 293 ;
294 [label="Common_PubMed_IDs <= 0.5\ngini = 0.292\nsamples = 12\nvalue = [0, 10, 1, 0, 0, 0, 0, 1, 0, 0]"] ;
293 -> 294 ;
295 [label="Num Atoms <= 1.5\ngini = 0.56\nsamples = 5\nvalue = [0, 3, 1, 0, 0, 0, 0, 1, 0, 0]"] ;
294 -> 295 ;
296 [label="Context Type <= 0.5\ngini = 0.667\nsamples = 3\nvalue = [0, 1, 1, 0, 0, 0, 0, 1, 0, 0]"] ;
295 -> 296 ;
297 [label="gini = 0.0\nsamples = 1\nvalue = [0, 1, 0, 0, 0, 0, 0, 0, 0, 0]"] ;
296 -> 297 ;
298 [label="gini = 0.5\nsamples = 2\nvalue = [0, 0, 1, 0, 0, 0, 0, 1, 0, 0]"] ;
296 -> 298 ;
299 [label="gini = 0.0\nsamples = 2\nvalue = [0, 2, 0, 0, 0, 0, 0, 0, 0, 0]"] ;
295 -> 299 ;
300 [label="gini = 0.0\nsamples = 7\nvalue = [0, 7, 0, 0, 0, 0, 0, 0, 0, 0]"] ;
294 -> 300 ;
301 [label="Concept Relation <= 1.0\ngini = 0.667\nsamples = 3\nvalue = [1, 1, 1, 0, 0, 0, 0, 0, 0, 0]"] ;
293 -> 301 ;
302 [label="Common_PubMed_IDs <= 31.0\ngini = 0.5\nsamples = 2\nvalue = [1, 0, 1, 0, 0, 0, 0, 0, 0, 0]"] ;
301 -> 302 ;
303 [label="gini = 0.0\nsamples = 1\nvalue = [1, 0, 0, 0, 0, 0, 0, 0, 0, 0]"] ;
302 -> 303 ;
304 [label="gini = 0.0\nsamples = 1\nvalue = [0, 0, 1, 0, 0, 0, 0, 0, 0, 0]"] ;
302 -> 304 ;
305 [label="gini = 0.0\nsamples = 1\nvalue = [0, 1, 0, 0, 0, 0, 0, 0, 0, 0]"] ;
301 -> 305 ;
306 [label="Paper Relations <= 16.5\ngini = 0.48\nsamples = 10\nvalue = [0, 6, 4, 0, 0, 0, 0, 0, 0, 0]"] ;
292 -> 306 ;
307 [label="gini = 0.0\nsamples = 2\nvalue = [0, 0, 2, 0, 0, 0, 0, 0, 0, 0]"] ;
306 -> 307 ;
308 [label="Common_PubMed_IDs <= 4.5\ngini = 0.375\nsamples = 8\nvalue = [0, 6, 2, 0, 0, 0, 0, 0, 0, 0]"] ;
306 -> 308 ;
309 [label="Context Type <= 0.5\ngini = 0.48\nsamples = 5\nvalue = [0, 3, 2, 0, 0, 0, 0, 0, 0, 0]"] ;
308 -> 309 ;
310 [label="Num Atoms <= 8.0\ngini = 0.444\nsamples = 3\nvalue = [0, 1, 2, 0, 0, 0, 0, 0, 0, 0]"] ;
309 -> 310 ;
311 [label="gini = 0.0\nsamples = 2\nvalue = [0, 0, 2, 0, 0, 0, 0, 0, 0, 0]"] ;
310 -> 311 ;
312 [label="gini = 0.0\nsamples = 1\nvalue = [0, 1, 0, 0, 0, 0, 0, 0, 0, 0]"] ;
310 -> 312 ;
313 [label="gini = 0.0\nsamples = 2\nvalue = [0, 2, 0, 0, 0, 0, 0, 0, 0, 0]"] ;
309 -> 313 ;
314 [label="gini = 0.0\nsamples = 3\nvalue = [0, 3, 0, 0, 0, 0, 0, 0, 0, 0]"] ;
308 -> 314 ;
315 [label="Common_PubMed_IDs <= 147.0\ngini = 0.857\nsamples = 58\nvalue = [2, 2, 3, 5, 7, 11, 13, 9, 3, 3]"] ;
291 -> 315 ;
316 [label="Context Type <= 0.5\ngini = 0.835\nsamples = 38\nvalue = [2, 1, 2, 0, 4, 5, 11, 7, 3, 3]"] ;
315 -> 316 ;
317 [label="Common_PubMed_IDs <= 3.0\ngini = 0.704\nsamples = 14\nvalue = [1, 1, 2, 0, 0, 1, 7, 1, 0, 1]"] ;
316 -> 317 ;
318 [label="Concept Relation <= 1.0\ngini = 0.667\nsamples = 3\nvalue = [0, 1, 0, 0, 0, 1, 0, 1, 0, 0]"] ;
317 -> 318 ;
319 [label="gini = 0.0\nsamples = 1\nvalue = [0, 1, 0, 0, 0, 0, 0, 0, 0, 0]"] ;
318 -> 319 ;
320 [label="Common_PubMed_IDs <= 0.5\ngini = 0.5\nsamples = 2\nvalue = [0, 0, 0, 0, 0, 1, 0, 1, 0, 0]"] ;
318 -> 320 ;
321 [label="gini = 0.0\nsamples = 1\nvalue = [0, 0, 0, 0, 0, 1, 0, 0, 0, 0]"] ;
320 -> 321 ;
322 [label="gini = 0.0\nsamples = 1\nvalue = [0, 0, 0, 0, 0, 0, 0, 1, 0, 0]"] ;
320 -> 322 ;
323 [label="Paper Relations <= 22.5\ngini = 0.545\nsamples = 11\nvalue = [1, 0, 2, 0, 0, 0, 7, 0, 0, 1]"] ;
317 -> 323 ;
324 [label="Num Relations <= 1.5\ngini = 0.37\nsamples = 9\nvalue = [0, 0, 1, 0, 0, 0, 7, 0, 0, 1]"] ;
323 -> 324 ;
325 [label="Paper Relations <= 17.0\ngini = 0.5\nsamples = 2\nvalue = [0, 0, 1, 0, 0, 0, 1, 0, 0, 0]"] ;
324 -> 325 ;
326 [label="gini = 0.0\nsamples = 1\nvalue = [0, 0, 1, 0, 0, 0, 0, 0, 0, 0]"] ;
325 -> 326 ;
327 [label="gini = 0.0\nsamples = 1\nvalue = [0, 0, 0, 0, 0, 0, 1, 0, 0, 0]"] ;
325 -> 327 ;
328 [label="Num Atoms <= 24.5\ngini = 0.245\nsamples = 7\nvalue = [0, 0, 0, 0, 0, 0, 6, 0, 0, 1]"] ;
324 -> 328 ;
329 [label="gini = 0.0\nsamples = 5\nvalue = [0, 0, 0, 0, 0, 0, 5, 0, 0, 0]"] ;
328 -> 329 ;
330 [label="Num Relations <= 19.5\ngini = 0.5\nsamples = 2\nvalue = [0, 0, 0, 0, 0, 0, 1, 0, 0, 1]"] ;
328 -> 330 ;
331 [label="gini = 0.0\nsamples = 1\nvalue = [0, 0, 0, 0, 0, 0, 0, 0, 0, 1]"] ;
330 -> 331 ;
332 [label="gini = 0.0\nsamples = 1\nvalue = [0, 0, 0, 0, 0, 0, 1, 0, 0, 0]"] ;
330 -> 332 ;
333 [label="Common_PubMed_IDs <= 58.5\ngini = 0.5\nsamples = 2\nvalue = [1, 0, 1, 0, 0, 0, 0, 0, 0, 0]"] ;
323 -> 333 ;
334 [label="gini = 0.0\nsamples = 1\nvalue = [0, 0, 1, 0, 0, 0, 0, 0, 0, 0]"] ;
333 -> 334 ;
335 [label="gini = 0.0\nsamples = 1\nvalue = [1, 0, 0, 0, 0, 0, 0, 0, 0, 0]"] ;
333 -> 335 ;
336 [label="Num Relations <= 10.0\ngini = 0.83\nsamples = 24\nvalue = [1, 0, 0, 0, 4, 4, 4, 6, 3, 2]"] ;
316 -> 336 ;
337 [label="Num Relations <= 3.5\ngini = 0.84\nsamples = 20\nvalue = [1, 0, 0, 0, 4, 3, 4, 3, 3, 2]"] ;
336 -> 337 ;
338 [label="Num Atoms <= 9.5\ngini = 0.806\nsamples = 12\nvalue = [1, 0, 0, 0, 1, 2, 2, 3, 3, 0]"] ;
337 -> 338 ;
339 [label="Num Atoms <= 6.5\ngini = 0.72\nsamples = 5\nvalue = [1, 0, 0, 0, 0, 1, 2, 1, 0, 0]"] ;
338 -> 339 ;
340 [label="Num Atoms <= 4.5\ngini = 0.667\nsamples = 3\nvalue = [1, 0, 0, 0, 0, 1, 0, 1, 0, 0]"] ;
339 -> 340 ;
341 [label="Paper Relations <= 17.0\ngini = 0.5\nsamples = 2\nvalue = [1, 0, 0, 0, 0, 1, 0, 0, 0, 0]"] ;
340 -> 341 ;
342 [label="gini = 0.0\nsamples = 1\nvalue = [0, 0, 0, 0, 0, 1, 0, 0, 0, 0]"] ;
341 -> 342 ;
343 [label="gini = 0.0\nsamples = 1\nvalue = [1, 0, 0, 0, 0, 0, 0, 0, 0, 0]"] ;
341 -> 343 ;
344 [label="gini = 0.0\nsamples = 1\nvalue = [0, 0, 0, 0, 0, 0, 0, 1, 0, 0]"] ;
340 -> 344 ;
345 [label="gini = 0.0\nsamples = 2\nvalue = [0, 0, 0, 0, 0, 0, 2, 0, 0, 0]"] ;
339 -> 345 ;
346 [label="Common_PubMed_IDs <= 2.0\ngini = 0.694\nsamples = 7\nvalue = [0, 0, 0, 0, 1, 1, 0, 2, 3, 0]"] ;
338 -> 346 ;
347 [label="Num Relations <= 2.0\ngini = 0.5\nsamples = 2\nvalue = [0, 0, 0, 0, 1, 1, 0, 0, 0, 0]"] ;
346 -> 347 ;
348 [label="gini = 0.0\nsamples = 1\nvalue = [0, 0, 0, 0, 0, 1, 0, 0, 0, 0]"] ;
347 -> 348 ;
349 [label="gini = 0.0\nsamples = 1\nvalue = [0, 0, 0, 0, 1, 0, 0, 0, 0, 0]"] ;
347 -> 349 ;
350 [label="Num Relations <= 1.5\ngini = 0.48\nsamples = 5\nvalue = [0, 0, 0, 0, 0, 0, 0, 2, 3, 0]"] ;
346 -> 350 ;
351 [label="gini = 0.0\nsamples = 2\nvalue = [0, 0, 0, 0, 0, 0, 0, 0, 2, 0]"] ;
350 -> 351 ;
352 [label="Paper Relations <= 9.5\ngini = 0.444\nsamples = 3\nvalue = [0, 0, 0, 0, 0, 0, 0, 2, 1, 0]"] ;
350 -> 352 ;
353 [label="gini = 0.0\nsamples = 1\nvalue = [0, 0, 0, 0, 0, 0, 0, 0, 1, 0]"] ;
352 -> 353 ;
354 [label="gini = 0.0\nsamples = 2\nvalue = [0, 0, 0, 0, 0, 0, 0, 2, 0, 0]"] ;
352 -> 354 ;
355 [label="Paper Relations <= 8.0\ngini = 0.719\nsamples = 8\nvalue = [0, 0, 0, 0, 3, 1, 2, 0, 0, 2]"] ;
337 -> 355 ;
356 [label="Num Relations <= 7.5\ngini = 0.722\nsamples = 6\nvalue = [0, 0, 0, 0, 1, 1, 2, 0, 0, 2]"] ;
355 -> 356 ;
357 [label="Paper Relations <= 0.5\ngini = 0.444\nsamples = 3\nvalue = [0, 0, 0, 0, 0, 1, 0, 0, 0, 2]"] ;
356 -> 357 ;
358 [label="gini = 0.0\nsamples = 2\nvalue = [0, 0, 0, 0, 0, 0, 0, 0, 0, 2]"] ;
357 -> 358 ;
359 [label="gini = 0.0\nsamples = 1\nvalue = [0, 0, 0, 0, 0, 1, 0, 0, 0, 0]"] ;
357 -> 359 ;
360 [label="Num Relations <= 8.5\ngini = 0.444\nsamples = 3\nvalue = [0, 0, 0, 0, 1, 0, 2, 0, 0, 0]"] ;
356 -> 360 ;
361 [label="gini = 0.0\nsamples = 1\nvalue = [0, 0, 0, 0, 0, 0, 1, 0, 0, 0]"] ;
360 -> 361 ;
362 [label="Common_PubMed_IDs <= 34.5\ngini = 0.5\nsamples = 2\nvalue = [0, 0, 0, 0, 1, 0, 1, 0, 0, 0]"] ;
360 -> 362 ;
363 [label="gini = 0.0\nsamples = 1\nvalue = [0, 0, 0, 0, 1, 0, 0, 0, 0, 0]"] ;
362 -> 363 ;
364 [label="gini = 0.0\nsamples = 1\nvalue = [0, 0, 0, 0, 0, 0, 1, 0, 0, 0]"] ;
362 -> 364 ;
365 [label="gini = 0.0\nsamples = 2\nvalue = [0, 0, 0, 0, 2, 0, 0, 0, 0, 0]"] ;
355 -> 365 ;
366 [label="Common_PubMed_IDs <= 35.5\ngini = 0.375\nsamples = 4\nvalue = [0, 0, 0, 0, 0, 1, 0, 3, 0, 0]"] ;
336 -> 366 ;
367 [label="gini = 0.0\nsamples = 3\nvalue = [0, 0, 0, 0, 0, 0, 0, 3, 0, 0]"] ;
366 -> 367 ;
368 [label="gini = 0.0\nsamples = 1\nvalue = [0, 0, 0, 0, 0, 1, 0, 0, 0, 0]"] ;
366 -> 368 ;
369 [label="Common_PubMed_IDs <= 382.0\ngini = 0.8\nsamples = 20\nvalue = [0, 1, 1, 5, 3, 6, 2, 2, 0, 0]"] ;
315 -> 369 ;
370 [label="Common_PubMed_IDs <= 202.5\ngini = 0.617\nsamples = 9\nvalue = [0, 0, 1, 2, 0, 5, 0, 1, 0, 0]"] ;
369 -> 370 ;
371 [label="Common_PubMed_IDs <= 178.5\ngini = 0.625\nsamples = 4\nvalue = [0, 0, 1, 2, 0, 0, 0, 1, 0, 0]"] ;
370 -> 371 ;
372 [label="gini = 0.0\nsamples = 2\nvalue = [0, 0, 0, 2, 0, 0, 0, 0, 0, 0]"] ;
371 -> 372 ;
373 [label="Context Type <= 0.5\ngini = 0.5\nsamples = 2\nvalue = [0, 0, 1, 0, 0, 0, 0, 1, 0, 0]"] ;
371 -> 373 ;
374 [label="gini = 0.0\nsamples = 1\nvalue = [0, 0, 0, 0, 0, 0, 0, 1, 0, 0]"] ;
373 -> 374 ;
375 [label="gini = 0.0\nsamples = 1\nvalue = [0, 0, 1, 0, 0, 0, 0, 0, 0, 0]"] ;
373 -> 375 ;
376 [label="gini = 0.0\nsamples = 5\nvalue = [0, 0, 0, 0, 0, 5, 0, 0, 0, 0]"] ;
370 -> 376 ;
377 [label="Context Type <= 0.5\ngini = 0.793\nsamples = 11\nvalue = [0, 1, 0, 3, 3, 1, 2, 1, 0, 0]"] ;
369 -> 377 ;
378 [label="Common_PubMed_IDs <= 932.0\ngini = 0.667\nsamples = 6\nvalue = [0, 0, 0, 1, 3, 1, 0, 1, 0, 0]"] ;
377 -> 378 ;
379 [label="gini = 0.0\nsamples = 1\nvalue = [0, 0, 0, 0, 0, 0, 0, 1, 0, 0]"] ;
378 -> 379 ;
380 [label="Num Relations <= 10.0\ngini = 0.56\nsamples = 5\nvalue = [0, 0, 0, 1, 3, 1, 0, 0, 0, 0]"] ;
378 -> 380 ;
381 [label="Num Atoms <= 12.5\ngini = 0.667\nsamples = 3\nvalue = [0, 0, 0, 1, 1, 1, 0, 0, 0, 0]"] ;
380 -> 381 ;
382 [label="gini = 0.0\nsamples = 1\nvalue = [0, 0, 0, 0, 1, 0, 0, 0, 0, 0]"] ;
381 -> 382 ;
383 [label="Num Relations <= 6.5\ngini = 0.5\nsamples = 2\nvalue = [0, 0, 0, 1, 0, 1, 0, 0, 0, 0]"] ;
381 -> 383 ;
384 [label="gini = 0.0\nsamples = 1\nvalue = [0, 0, 0, 0, 0, 1, 0, 0, 0, 0]"] ;
383 -> 384 ;
385 [label="gini = 0.0\nsamples = 1\nvalue = [0, 0, 0, 1, 0, 0, 0, 0, 0, 0]"] ;
383 -> 385 ;
386 [label="gini = 0.0\nsamples = 2\nvalue = [0, 0, 0, 0, 2, 0, 0, 0, 0, 0]"] ;
380 -> 386 ;
387 [label="Num Relations <= 3.5\ngini = 0.64\nsamples = 5\nvalue = [0, 1, 0, 2, 0, 0, 2, 0, 0, 0]"] ;
377 -> 387 ;
388 [label="gini = 0.0\nsamples = 2\nvalue = [0, 0, 0, 2, 0, 0, 0, 0, 0, 0]"] ;
387 -> 388 ;
389 [label="Paper Relations <= 57.0\ngini = 0.444\nsamples = 3\nvalue = [0, 1, 0, 0, 0, 0, 2, 0, 0, 0]"] ;
387 -> 389 ;
390 [label="gini = 0.0\nsamples = 2\nvalue = [0, 0, 0, 0, 0, 0, 2, 0, 0, 0]"] ;
389 -> 390 ;
391 [label="gini = 0.0\nsamples = 1\nvalue = [0, 1, 0, 0, 0, 0, 0, 0, 0, 0]"] ;
389 -> 391 ;
392 [label="Paper Relations <= 83.5\ngini = 0.793\nsamples = 86\nvalue = [23, 26, 14, 9, 5, 3, 1, 1, 4, 0]"] ;
0 -> 392 [labeldistance=2.5, labelangle=-45, headlabel="False"] ;
393 [label="ID Relation <= 0.5\ngini = 0.791\nsamples = 72\nvalue = [12, 25, 14, 9, 5, 2, 1, 1, 3, 0]"] ;
392 -> 393 ;
394 [label="Paper Relations <= 30.5\ngini = 0.809\nsamples = 38\nvalue = [3, 9, 11, 7, 3, 1, 1, 1, 2, 0]"] ;
393 -> 394 ;
395 [label="Common_PubMed_IDs <= 106.5\ngini = 0.792\nsamples = 36\nvalue = [3, 9, 11, 7, 2, 0, 1, 1, 2, 0]"] ;
394 -> 395 ;
396 [label="Num Atoms <= 23.0\ngini = 0.816\nsamples = 30\nvalue = [3, 7, 7, 7, 2, 0, 1, 1, 2, 0]"] ;
395 -> 396 ;
397 [label="Num Atoms <= 0.5\ngini = 0.804\nsamples = 29\nvalue = [3, 7, 7, 7, 2, 0, 0, 1, 2, 0]"] ;
396 -> 397 ;
398 [label="gini = 0.0\nsamples = 1\nvalue = [0, 0, 0, 0, 1, 0, 0, 0, 0, 0]"] ;
397 -> 398 ;
399 [label="Name Relations <= 3.5\ngini = 0.793\nsamples = 28\nvalue = [3, 7, 7, 7, 1, 0, 0, 1, 2, 0]"] ;
397 -> 399 ;
400 [label="Concept Relation <= 1.0\ngini = 0.785\nsamples = 27\nvalue = [2, 7, 7, 7, 1, 0, 0, 1, 2, 0]"] ;
399 -> 400 ;
401 [label="Name Relations <= 1.5\ngini = 0.787\nsamples = 19\nvalue = [1, 5, 6, 3, 1, 0, 0, 1, 2, 0]"] ;
400 -> 401 ;
402 [label="Common_PubMed_IDs <= 7.0\ngini = 0.5\nsamples = 4\nvalue = [0, 0, 2, 2, 0, 0, 0, 0, 0, 0]"] ;
401 -> 402 ;
403 [label="gini = 0.0\nsamples = 1\nvalue = [0, 0, 0, 1, 0, 0, 0, 0, 0, 0]"] ;
402 -> 403 ;
404 [label="Paper Relations <= 23.5\ngini = 0.444\nsamples = 3\nvalue = [0, 0, 2, 1, 0, 0, 0, 0, 0, 0]"] ;
402 -> 404 ;
405 [label="gini = 0.0\nsamples = 2\nvalue = [0, 0, 2, 0, 0, 0, 0, 0, 0, 0]"] ;
404 -> 405 ;
406 [label="gini = 0.0\nsamples = 1\nvalue = [0, 0, 0, 1, 0, 0, 0, 0, 0, 0]"] ;
404 -> 406 ;
407 [label="Num Atoms <= 4.0\ngini = 0.782\nsamples = 15\nvalue = [1, 5, 4, 1, 1, 0, 0, 1, 2, 0]"] ;
401 -> 407 ;
408 [label="Common_PubMed_IDs <= 7.0\ngini = 0.722\nsamples = 12\nvalue = [0, 5, 3, 1, 0, 0, 0, 1, 2, 0]"] ;
407 -> 408 ;
409 [label="Name Relations <= 2.5\ngini = 0.76\nsamples = 10\nvalue = [0, 3, 3, 1, 0, 0, 0, 1, 2, 0]"] ;
408 -> 409 ;
410 [label="Num Atoms <= 2.0\ngini = 0.765\nsamples = 9\nvalue = [0, 2, 3, 1, 0, 0, 0, 1, 2, 0]"] ;
409 -> 410 ;
411 [label="Paper Relations <= 12.5\ngini = 0.735\nsamples = 7\nvalue = [0, 1, 3, 1, 0, 0, 0, 1, 1, 0]"] ;
410 -> 411 ;
412 [label="gini = 0.778\nsamples = 6\nvalue = [0, 1, 2, 1, 0, 0, 0, 1, 1, 0]"] ;
411 -> 412 ;
413 [label="gini = 0.0\nsamples = 1\nvalue = [0, 0, 1, 0, 0, 0, 0, 0, 0, 0]"] ;
411 -> 413 ;
414 [label="Paper Relations <= 12.5\ngini = 0.5\nsamples = 2\nvalue = [0, 1, 0, 0, 0, 0, 0, 0, 1, 0]"] ;
410 -> 414 ;
415 [label="gini = 0.0\nsamples = 1\nvalue = [0, 0, 0, 0, 0, 0, 0, 0, 1, 0]"] ;
414 -> 415 ;
416 [label="gini = 0.0\nsamples = 1\nvalue = [0, 1, 0, 0, 0, 0, 0, 0, 0, 0]"] ;
414 -> 416 ;
417 [label="gini = 0.0\nsamples = 1\nvalue = [0, 1, 0, 0, 0, 0, 0, 0, 0, 0]"] ;
409 -> 417 ;
418 [label="gini = 0.0\nsamples = 2\nvalue = [0, 2, 0, 0, 0, 0, 0, 0, 0, 0]"] ;
408 -> 418 ;
419 [label="Context Type <= 0.5\ngini = 0.667\nsamples = 3\nvalue = [1, 0, 1, 0, 1, 0, 0, 0, 0, 0]"] ;
407 -> 419 ;
420 [label="gini = 0.0\nsamples = 1\nvalue = [0, 0, 0, 0, 1, 0, 0, 0, 0, 0]"] ;
419 -> 420 ;
421 [label="Num Atoms <= 8.0\ngini = 0.5\nsamples = 2\nvalue = [1, 0, 1, 0, 0, 0, 0, 0, 0, 0]"] ;
419 -> 421 ;
422 [label="gini = 0.0\nsamples = 1\nvalue = [1, 0, 0, 0, 0, 0, 0, 0, 0, 0]"] ;
421 -> 422 ;
423 [label="gini = 0.0\nsamples = 1\nvalue = [0, 0, 1, 0, 0, 0, 0, 0, 0, 0]"] ;
421 -> 423 ;
424 [label="Num Atoms <= 3.5\ngini = 0.656\nsamples = 8\nvalue = [1, 2, 1, 4, 0, 0, 0, 0, 0, 0]"] ;
400 -> 424 ;
425 [label="Context Type <= 0.5\ngini = 0.5\nsamples = 2\nvalue = [1, 1, 0, 0, 0, 0, 0, 0, 0, 0]"] ;
424 -> 425 ;
426 [label="gini = 0.0\nsamples = 1\nvalue = [0, 1, 0, 0, 0, 0, 0, 0, 0, 0]"] ;
425 -> 426 ;
427 [label="gini = 0.0\nsamples = 1\nvalue = [1, 0, 0, 0, 0, 0, 0, 0, 0, 0]"] ;
425 -> 427 ;
428 [label="Name Relations <= 2.5\ngini = 0.5\nsamples = 6\nvalue = [0, 1, 1, 4, 0, 0, 0, 0, 0, 0]"] ;
424 -> 428 ;
429 [label="Common_PubMed_IDs <= 6.0\ngini = 0.32\nsamples = 5\nvalue = [0, 1, 0, 4, 0, 0, 0, 0, 0, 0]"] ;
428 -> 429 ;
430 [label="Num Relations <= 2.5\ngini = 0.5\nsamples = 2\nvalue = [0, 1, 0, 1, 0, 0, 0, 0, 0, 0]"] ;
429 -> 430 ;
431 [label="gini = 0.0\nsamples = 1\nvalue = [0, 1, 0, 0, 0, 0, 0, 0, 0, 0]"] ;
430 -> 431 ;
432 [label="gini = 0.0\nsamples = 1\nvalue = [0, 0, 0, 1, 0, 0, 0, 0, 0, 0]"] ;
430 -> 432 ;
433 [label="gini = 0.0\nsamples = 3\nvalue = [0, 0, 0, 3, 0, 0, 0, 0, 0, 0]"] ;
429 -> 433 ;
434 [label="gini = 0.0\nsamples = 1\nvalue = [0, 0, 1, 0, 0, 0, 0, 0, 0, 0]"] ;
428 -> 434 ;
435 [label="gini = 0.0\nsamples = 1\nvalue = [1, 0, 0, 0, 0, 0, 0, 0, 0, 0]"] ;
399 -> 435 ;
436 [label="gini = 0.0\nsamples = 1\nvalue = [0, 0, 0, 0, 0, 0, 1, 0, 0, 0]"] ;
396 -> 436 ;
437 [label="Common_PubMed_IDs <= 674.5\ngini = 0.444\nsamples = 6\nvalue = [0, 2, 4, 0, 0, 0, 0, 0, 0, 0]"] ;
395 -> 437 ;
438 [label="gini = 0.0\nsamples = 3\nvalue = [0, 0, 3, 0, 0, 0, 0, 0, 0, 0]"] ;
437 -> 438 ;
439 [label="Paper Relations <= 15.5\ngini = 0.444\nsamples = 3\nvalue = [0, 2, 1, 0, 0, 0, 0, 0, 0, 0]"] ;
437 -> 439 ;
440 [label="gini = 0.0\nsamples = 1\nvalue = [0, 0, 1, 0, 0, 0, 0, 0, 0, 0]"] ;
439 -> 440 ;
441 [label="gini = 0.0\nsamples = 2\nvalue = [0, 2, 0, 0, 0, 0, 0, 0, 0, 0]"] ;
439 -> 441 ;
442 [label="Common_PubMed_IDs <= 129.0\ngini = 0.5\nsamples = 2\nvalue = [0, 0, 0, 0, 1, 1, 0, 0, 0, 0]"] ;
394 -> 442 ;
443 [label="gini = 0.0\nsamples = 1\nvalue = [0, 0, 0, 0, 0, 1, 0, 0, 0, 0]"] ;
442 -> 443 ;
444 [label="gini = 0.0\nsamples = 1\nvalue = [0, 0, 0, 0, 1, 0, 0, 0, 0, 0]"] ;
442 -> 444 ;
445 [label="Paper Relations <= 22.0\ngini = 0.692\nsamples = 34\nvalue = [9, 16, 3, 2, 2, 1, 0, 0, 1, 0]"] ;
393 -> 445 ;
446 [label="Common_PubMed_IDs <= 6.5\ngini = 0.618\nsamples = 24\nvalue = [3, 14, 3, 1, 2, 0, 0, 0, 1, 0]"] ;
445 -> 446 ;
447 [label="Context Type <= 0.5\ngini = 0.813\nsamples = 8\nvalue = [1, 2, 1, 1, 2, 0, 0, 0, 1, 0]"] ;
446 -> 447 ;
448 [label="gini = 0.0\nsamples = 1\nvalue = [1, 0, 0, 0, 0, 0, 0, 0, 0, 0]"] ;
447 -> 448 ;
449 [label="Paper Relations <= 14.5\ngini = 0.776\nsamples = 7\nvalue = [0, 2, 1, 1, 2, 0, 0, 0, 1, 0]"] ;
447 -> 449 ;
450 [label="Name Relations <= 1.5\ngini = 0.778\nsamples = 6\nvalue = [0, 1, 1, 1, 2, 0, 0, 0, 1, 0]"] ;
449 -> 450 ;
451 [label="ID Relation <= 1.5\ngini = 0.667\nsamples = 3\nvalue = [0, 1, 1, 0, 1, 0, 0, 0, 0, 0]"] ;
450 -> 451 ;
452 [label="Common_PubMed_IDs <= 0.5\ngini = 0.5\nsamples = 2\nvalue = [0, 1, 1, 0, 0, 0, 0, 0, 0, 0]"] ;
451 -> 452 ;
453 [label="gini = 0.0\nsamples = 1\nvalue = [0, 1, 0, 0, 0, 0, 0, 0, 0, 0]"] ;
452 -> 453 ;
454 [label="gini = 0.0\nsamples = 1\nvalue = [0, 0, 1, 0, 0, 0, 0, 0, 0, 0]"] ;
452 -> 454 ;
455 [label="gini = 0.0\nsamples = 1\nvalue = [0, 0, 0, 0, 1, 0, 0, 0, 0, 0]"] ;
451 -> 455 ;
456 [label="gini = 0.667\nsamples = 3\nvalue = [0, 0, 0, 1, 1, 0, 0, 0, 1, 0]"] ;
450 -> 456 ;
457 [label="gini = 0.0\nsamples = 1\nvalue = [0, 1, 0, 0, 0, 0, 0, 0, 0, 0]"] ;
449 -> 457 ;
458 [label="Common_PubMed_IDs <= 12606.0\ngini = 0.406\nsamples = 16\nvalue = [2, 12, 2, 0, 0, 0, 0, 0, 0, 0]"] ;
446 -> 458 ;
459 [label="Paper Relations <= 15.5\ngini = 0.338\nsamples = 15\nvalue = [2, 12, 1, 0, 0, 0, 0, 0, 0, 0]"] ;
458 -> 459 ;
460 [label="Common_PubMed_IDs <= 63.5\ngini = 0.531\nsamples = 8\nvalue = [2, 5, 1, 0, 0, 0, 0, 0, 0, 0]"] ;
459 -> 460 ;
461 [label="gini = 0.0\nsamples = 1\nvalue = [1, 0, 0, 0, 0, 0, 0, 0, 0, 0]"] ;
460 -> 461 ;
462 [label="Num Relations <= 1.5\ngini = 0.449\nsamples = 7\nvalue = [1, 5, 1, 0, 0, 0, 0, 0, 0, 0]"] ;
460 -> 462 ;
463 [label="gini = 0.0\nsamples = 4\nvalue = [0, 4, 0, 0, 0, 0, 0, 0, 0, 0]"] ;
462 -> 463 ;
464 [label="Num Relations <= 3.0\ngini = 0.667\nsamples = 3\nvalue = [1, 1, 1, 0, 0, 0, 0, 0, 0, 0]"] ;
462 -> 464 ;
465 [label="gini = 0.0\nsamples = 1\nvalue = [0, 0, 1, 0, 0, 0, 0, 0, 0, 0]"] ;
464 -> 465 ;
466 [label="Common_PubMed_IDs <= 155.0\ngini = 0.5\nsamples = 2\nvalue = [1, 1, 0, 0, 0, 0, 0, 0, 0, 0]"] ;
464 -> 466 ;
467 [label="gini = 0.0\nsamples = 1\nvalue = [0, 1, 0, 0, 0, 0, 0, 0, 0, 0]"] ;
466 -> 467 ;
468 [label="gini = 0.0\nsamples = 1\nvalue = [1, 0, 0, 0, 0, 0, 0, 0, 0, 0]"] ;
466 -> 468 ;
469 [label="gini = 0.0\nsamples = 7\nvalue = [0, 7, 0, 0, 0, 0, 0, 0, 0, 0]"] ;
459 -> 469 ;
470 [label="gini = 0.0\nsamples = 1\nvalue = [0, 0, 1, 0, 0, 0, 0, 0, 0, 0]"] ;
458 -> 470 ;
471 [label="Common_PubMed_IDs <= 374.0\ngini = 0.58\nsamples = 10\nvalue = [6, 2, 0, 1, 0, 1, 0, 0, 0, 0]"] ;
445 -> 471 ;
472 [label="Num Atoms <= 1.5\ngini = 0.494\nsamples = 9\nvalue = [6, 2, 0, 1, 0, 0, 0, 0, 0, 0]"] ;
471 -> 472 ;
473 [label="gini = 0.0\nsamples = 1\nvalue = [0, 1, 0, 0, 0, 0, 0, 0, 0, 0]"] ;
472 -> 473 ;
474 [label="Common_PubMed_IDs <= 1.5\ngini = 0.406\nsamples = 8\nvalue = [6, 1, 0, 1, 0, 0, 0, 0, 0, 0]"] ;
472 -> 474 ;
475 [label="gini = 0.5\nsamples = 2\nvalue = [1, 1, 0, 0, 0, 0, 0, 0, 0, 0]"] ;
474 -> 475 ;
476 [label="Common_PubMed_IDs <= 199.0\ngini = 0.278\nsamples = 6\nvalue = [5, 0, 0, 1, 0, 0, 0, 0, 0, 0]"] ;
474 -> 476 ;
477 [label="gini = 0.0\nsamples = 4\nvalue = [4, 0, 0, 0, 0, 0, 0, 0, 0, 0]"] ;
476 -> 477 ;
478 [label="gini = 0.5\nsamples = 2\nvalue = [1, 0, 0, 1, 0, 0, 0, 0, 0, 0]"] ;
476 -> 478 ;
479 [label="gini = 0.0\nsamples = 1\nvalue = [0, 0, 0, 0, 0, 1, 0, 0, 0, 0]"] ;
471 -> 479 ;
480 [label="Common_PubMed_IDs <= 41.5\ngini = 0.367\nsamples = 14\nvalue = [11, 1, 0, 0, 0, 1, 0, 0, 1, 0]"] ;
392 -> 480 ;
481 [label="Num Atoms <= 5.0\ngini = 0.5\nsamples = 2\nvalue = [0, 0, 0, 0, 0, 1, 0, 0, 1, 0]"] ;
480 -> 481 ;
482 [label="gini = 0.0\nsamples = 1\nvalue = [0, 0, 0, 0, 0, 1, 0, 0, 0, 0]"] ;
481 -> 482 ;
483 [label="gini = 0.0\nsamples = 1\nvalue = [0, 0, 0, 0, 0, 0, 0, 0, 1, 0]"] ;
481 -> 483 ;
484 [label="Num Atoms <= 2.5\ngini = 0.153\nsamples = 12\nvalue = [11, 1, 0, 0, 0, 0, 0, 0, 0, 0]"] ;
480 -> 484 ;
485 [label="Common_PubMed_IDs <= 315.0\ngini = 0.375\nsamples = 4\nvalue = [3, 1, 0, 0, 0, 0, 0, 0, 0, 0]"] ;
484 -> 485 ;
486 [label="Context Type <= 0.5\ngini = 0.5\nsamples = 2\nvalue = [1, 1, 0, 0, 0, 0, 0, 0, 0, 0]"] ;
485 -> 486 ;
487 [label="gini = 0.0\nsamples = 1\nvalue = [1, 0, 0, 0, 0, 0, 0, 0, 0, 0]"] ;
486 -> 487 ;
488 [label="gini = 0.0\nsamples = 1\nvalue = [0, 1, 0, 0, 0, 0, 0, 0, 0, 0]"] ;
486 -> 488 ;
489 [label="gini = 0.0\nsamples = 2\nvalue = [2, 0, 0, 0, 0, 0, 0, 0, 0, 0]"] ;
485 -> 489 ;
490 [label="gini = 0.0\nsamples = 8\nvalue = [8, 0, 0, 0, 0, 0, 0, 0, 0, 0]"] ;
484 -> 490 ;
}